digraph Tree {
node [shape=box, style="filled, rounded", color="black", fontname="helvetica"] ;
edge [fontname="helvetica"] ;
0 [label=<FG_PCT &le; 0.468<br/>gini = 0.426<br/>samples = 100.0%<br/>value = [0.308, 0.692]<br/>class = Lost>, fillcolor="#91c9f1"] ;
1 [label=<FG3_PCT &le; 0.393<br/>gini = 0.403<br/>samples = 38.5%<br/>value = [0.72, 0.28]<br/>class = Won>, fillcolor="#efb286"] ;
0 -> 1 [labeldistance=2.5, labelangle=45, headlabel="True"] ;
2 [label=<OPP_FG3_PCT &le; 0.309<br/>gini = 0.298<br/>samples = 33.8%<br/>value = [0.818, 0.182]<br/>class = Won>, fillcolor="#eb9d65"] ;
1 -> 2 ;
3 [label=<OPP_TOV &le; 13.5<br/>gini = 0.375<br/>samples = 6.2%<br/>value = [0.25, 0.75]<br/>class = Lost>, fillcolor="#7bbeee"] ;
2 -> 3 ;
4 [label=<gini = 0.0<br/>samples = 1.5%<br/>value = [1.0, 0.0]<br/>class = Won>, fillcolor="#e58139"] ;
3 -> 4 ;
5 [label=<gini = 0.0<br/>samples = 4.6%<br/>value = [0.0, 1.0]<br/>class = Lost>, fillcolor="#399de5"] ;
3 -> 5 ;
6 [label=<REB &le; 62.5<br/>gini = 0.105<br/>samples = 27.7%<br/>value = [0.944, 0.056]<br/>class = Won>, fillcolor="#e78845"] ;
2 -> 6 ;
7 [label=<gini = 0.0<br/>samples = 26.2%<br/>value = [1.0, 0.0]<br/>class = Won>, fillcolor="#e58139"] ;
6 -> 7 ;
8 [label=<gini = 0.0<br/>samples = 1.5%<br/>value = [0.0, 1.0]<br/>class = Lost>, fillcolor="#399de5"] ;
6 -> 8 ;
9 [label=<gini = 0.0<br/>samples = 4.6%<br/>value = [0.0, 1.0]<br/>class = Lost>, fillcolor="#399de5"] ;
1 -> 9 ;
10 [label=<FG3_PCT &le; 0.266<br/>gini = 0.095<br/>samples = 61.5%<br/>value = [0.05, 0.95]<br/>class = Lost>, fillcolor="#43a2e6"] ;
0 -> 10 [labeldistance=2.5, labelangle=-45, headlabel="False"] ;
11 [label=<gini = 0.0<br/>samples = 1.5%<br/>value = [1.0, 0.0]<br/>class = Won>, fillcolor="#e58139"] ;
10 -> 11 ;
12 [label=<REB &le; 34.5<br/>gini = 0.05<br/>samples = 60.0%<br/>value = [0.026, 0.974]<br/>class = Lost>, fillcolor="#3ea0e6"] ;
10 -> 12 ;
13 [label=<STL &le; 7.0<br/>gini = 0.5<br/>samples = 3.1%<br/>value = [0.5, 0.5]<br/>class = Won>, fillcolor="#ffffff"] ;
12 -> 13 ;
14 [label=<gini = 0.0<br/>samples = 1.5%<br/>value = [0.0, 1.0]<br/>class = Lost>, fillcolor="#399de5"] ;
13 -> 14 ;
15 [label=<gini = 0.0<br/>samples = 1.5%<br/>value = [1.0, 0.0]<br/>class = Won>, fillcolor="#e58139"] ;
13 -> 15 ;
16 [label=<gini = 0.0<br/>samples = 56.9%<br/>value = [0.0, 1.0]<br/>class = Lost>, fillcolor="#399de5"] ;
12 -> 16 ;
}